digraph Tree {
node [shape=box] ;
0 [label="X[2] <= 11.5\ngini = 0.5\nsamples = 1578\nvalue = [800, 778]"] ;
1 [label="X[0] <= 5.5\ngini = 0.369\nsamples = 925\nvalue = [226, 699]"] ;
0 -> 1 [labeldistance=2.5, labelangle=45, headlabel="True"] ;
2 [label="X[0] <= 4.5\ngini = 0.053\nsamples = 593\nvalue = [16, 577]"] ;
1 -> 2 ;
3 [label="X[0] <= 3.5\ngini = 0.019\nsamples = 509\nvalue = [5, 504]"] ;
2 -> 3 ;
4 [label="gini = 0.0\nsamples = 372\nvalue = [0, 372]"] ;
3 -> 4 ;
5 [label="X[1] <= 0.5\ngini = 0.07\nsamples = 137\nvalue = [5, 132]"] ;
3 -> 5 ;
6 [label="gini = 0.0\nsamples = 58\nvalue = [0, 58]"] ;
5 -> 6 ;
7 [label="gini = 0.119\nsamples = 79\nvalue = [5, 74]"] ;
5 -> 7 ;
8 [label="X[1] <= 0.5\ngini = 0.228\nsamples = 84\nvalue = [11, 73]"] ;
2 -> 8 ;
9 [label="gini = 0.0\nsamples = 32\nvalue = [0, 32]"] ;
8 -> 9 ;
10 [label="X[2] <= 9.5\ngini = 0.334\nsamples = 52\nvalue = [11, 41]"] ;
8 -> 10 ;
11 [label="gini = 0.268\nsamples = 44\nvalue = [7, 37]"] ;
10 -> 11 ;
12 [label="gini = 0.5\nsamples = 8\nvalue = [4, 4]"] ;
10 -> 12 ;
13 [label="X[1] <= 0.5\ngini = 0.465\nsamples = 332\nvalue = [210, 122]"] ;
1 -> 13 ;
14 [label="gini = 0.0\nsamples = 73\nvalue = [0, 73]"] ;
13 -> 14 ;
15 [label="X[0] <= 6.5\ngini = 0.307\nsamples = 259\nvalue = [210, 49]"] ;
13 -> 15 ;
16 [label="X[3] <= 0.5\ngini = 0.444\nsamples = 75\nvalue = [50, 25]"] ;
15 -> 16 ;
17 [label="gini = 0.404\nsamples = 64\nvalue = [46, 18]"] ;
16 -> 17 ;
18 [label="gini = 0.463\nsamples = 11\nvalue = [4, 7]"] ;
16 -> 18 ;
19 [label="X[2] <= 0.5\ngini = 0.227\nsamples = 184\nvalue = [160, 24]"] ;
15 -> 19 ;
20 [label="gini = 0.472\nsamples = 42\nvalue = [26, 16]"] ;
19 -> 20 ;
21 [label="gini = 0.106\nsamples = 142\nvalue = [134, 8]"] ;
19 -> 21 ;
22 [label="X[0] <= 2.5\ngini = 0.213\nsamples = 653\nvalue = [574, 79]"] ;
0 -> 22 [labeldistance=2.5, labelangle=-45, headlabel="False"] ;
23 [label="X[2] <= 24.0\ngini = 0.498\nsamples = 64\nvalue = [30, 34]"] ;
22 -> 23 ;
24 [label="X[7] <= 0.5\ngini = 0.308\nsamples = 42\nvalue = [8, 34]"] ;
23 -> 24 ;
25 [label="X[6] <= 0.5\ngini = 0.423\nsamples = 23\nvalue = [7, 16]"] ;
24 -> 25 ;
26 [label="gini = 0.397\nsamples = 22\nvalue = [6, 16]"] ;
25 -> 26 ;
27 [label="gini = 0.0\nsamples = 1\nvalue = [1, 0]"] ;
25 -> 27 ;
28 [label="X[3] <= 0.5\ngini = 0.1\nsamples = 19\nvalue = [1, 18]"] ;
24 -> 28 ;
29 [label="gini = 0.0\nsamples = 16\nvalue = [0, 16]"] ;
28 -> 29 ;
30 [label="gini = 0.444\nsamples = 3\nvalue = [1, 2]"] ;
28 -> 30 ;
31 [label="gini = 0.0\nsamples = 22\nvalue = [22, 0]"] ;
23 -> 31 ;
32 [label="X[1] <= 0.5\ngini = 0.141\nsamples = 589\nvalue = [544, 45]"] ;
22 -> 32 ;
33 [label="gini = 0.0\nsamples = 5\nvalue = [0, 5]"] ;
32 -> 33 ;
34 [label="X[2] <= 22.5\ngini = 0.128\nsamples = 584\nvalue = [544, 40]"] ;
32 -> 34 ;
35 [label="X[0] <= 4.5\ngini = 0.262\nsamples = 258\nvalue = [218, 40]"] ;
34 -> 35 ;
36 [label="gini = 0.494\nsamples = 72\nvalue = [40, 32]"] ;
35 -> 36 ;
37 [label="gini = 0.082\nsamples = 186\nvalue = [178, 8]"] ;
35 -> 37 ;
38 [label="gini = 0.0\nsamples = 326\nvalue = [326, 0]"] ;
34 -> 38 ;
}